Name (Latin),Neuron 1,Neuron 2,Neuron 3,Neuron 4,Neuron 5,Neuron 6,Neuron 7,Neuron 8,Neuron 9,Neuron 10,Neuron 11,Neuron 12,Neuron 13,Neuron 14,Neuron 15,Neuron 16,Neuron 17,Neuron 18,Neuron 19,Neuron 20,Neuron 21,Neuron 22,Neuron 23,Neuron 24,Neuron 25,Neuron 26,Neuron 27,Neuron 28,Neuron 29,Neuron 30,Neuron 31,Neuron 32,Neuron 33,Neuron 34,Neuron 35,Neuron 36,Neuron 37,Neuron 38,Neuron 39,Neuron 40,Neuron 41,Neuron 42,Neuron 43,Neuron 44,Neuron 45,Neuron 46,Neuron 47,Neuron 48,Neuron 49,Neuron 50,Neuron 51,Neuron 52,Neuron 53,Neuron 54,Neuron 55,Neuron 56,Neuron 57,Neuron 58,Neuron 59,Neuron 60,Neuron 61,Neuron 62,Neuron 63,Neuron 64,Neuron 65,Neuron 66,Neuron 67,Neuron 68,Neuron 69,Neuron 70,Neuron 71,Neuron 72,Neuron 73,Neuron 74,Neuron 75,Neuron 76,Neuron 77,Neuron 78,Neuron 79,Neuron 80,Neuron 81,Neuron 82,Neuron 83,Neuron 84,Neuron 85,Neuron 86,Neuron 87,Neuron 88,Neuron 89,Neuron 90,Neuron 91,Neuron 92,Neuron 93,Neuron 94,Neuron 95,Neuron 96,Neuron 97,Neuron 98,Neuron 99,Neuron 100,Neuron 101,Neuron 102,Neuron 103,Neuron 104,Neuron 105,Neuron 106,Neuron 107,Neuron 108,Neuron 109,Neuron 110,Neuron 111,Neuron 112,Neuron 113,Neuron 114,Neuron 115,Neuron 116,Neuron 117,Neuron 118,Neuron 119,Neuron 120,Neuron 121,Neuron 122,Neuron 123,Neuron 124,Neuron 125,Neuron 126,Neuron 127,Neuron 128,Neuron 129,Neuron 130,Neuron 131,Neuron 132,Neuron 133,Neuron 134,Neuron 135,Neuron 136,Neuron 137,Neuron 138,Neuron 139,Neuron 140,Neuron 141,Neuron 142,Neuron 143,Neuron 144,Neuron 145,Neuron 146,Neuron 147,Neuron 148,Neuron 149,Neuron 150,Neuron 151,Neuron 152,Neuron 153,Neuron 154,Neuron 155,Neuron 156,Neuron 157,Neuron 158,Neuron 159,Neuron 160,Neuron 161,Neuron 162,Neuron 163,Neuron 164,Neuron 165,Neuron 166,Neuron 167,Neuron 168,Neuron 169,Neuron 170,Neuron 171,Neuron 172,Neuron 173,Neuron 174,Neuron 175,Neuron 176,Neuron 177,Neuron 178,Neuron 179,Neuron 180,Neuron 181,Neuron 182,Neuron 183,Neuron 184,Neuron 185,Neuron 186,Neuron 187,Neuron 188,Neuron 189,Neuron 190,Neuron 191,Neuron 192,Neuron 193,Neuron 194,Neuron 195,Neuron 196,Neuron 197,Neuron 198,Neuron 199,Neuron 200,Neuron 201,Neuron 202,Neuron 203,Neuron 204,Neuron 205,Neuron 206,Neuron 207,Neuron 208,Neuron 209,Neuron 210,Neuron 211,Neuron 212,Neuron 213,Neuron 214,Neuron 215,Neuron 216,Neuron 217,Neuron 218,Neuron 219,Neuron 220,Neuron 221,Neuron 222,Neuron 223,Neuron 224,Neuron 225,Neuron 226,Neuron 227,Neuron 228,Neuron 229,Neuron 230,Neuron 231,Neuron 232,Neuron 233,Neuron 234,Neuron 235,Neuron 236,Neuron 237,Neuron 238,Neuron 239,Neuron 240,Neuron 241,Neuron 242,Neuron 243,Neuron 244,Neuron 245,Neuron 246,Neuron 247,Neuron 248,Neuron 249,Neuron 250,Neuron 251,Neuron 252,Neuron 253,Neuron 254,Neuron 255,Neuron 256,Neuron 257,Neuron 258,Neuron 259,Neuron 260,Neuron 261,Neuron 262,Neuron 263,Neuron 264,Neuron 265,Neuron 266,Neuron 267,Neuron 268,Neuron 269,Neuron 270,Neuron 271,Neuron 272,Neuron 273,Neuron 274,Neuron 275,Neuron 276,Neuron 277,Neuron 278,Neuron 279,Neuron 280,Neuron 281,Neuron 282,Neuron 283,Neuron 284,Neuron 285,Neuron 286,Neuron 287,Neuron 288,Neuron 289,Neuron 290,Neuron 291,Neuron 292,Neuron 293,Neuron 294,Neuron 295,Neuron 296,Neuron 297,Neuron 298,Neuron 299,Neuron 300,Neuron 301,Neuron 302,Neuron 303,Neuron 304,Neuron 305,Neuron 306,Neuron 307,Neuron 308,Neuron 309,Neuron 310,Neuron 311,Neuron 312,Neuron 313,Neuron 314,Neuron 315,Neuron 316,Neuron 317,Neuron 318,Neuron 319,Neuron 320,Neuron 321,Neuron 322,Neuron 323,Neuron 324,Neuron 325,Neuron 326,Neuron 327,Neuron 328,Neuron 329,Neuron 330,Neuron 331,Neuron 332,Neuron 333,Neuron 334,Neuron 335,Neuron 336,Neuron 337,Neuron 338,Neuron 339,Neuron 340,Neuron 341,Neuron 342,Neuron 343,Neuron 344,Neuron 345,Neuron 346,Neuron 347,Neuron 348,Neuron 349,Neuron 350,Neuron 351,Neuron 352,Neuron 353,Neuron 354,Neuron 355,Neuron 356,Neuron 357,Neuron 358,Neuron 359,Neuron 360,Neuron 361,Neuron 362,Neuron 363,Neuron 364,Neuron 365,Neuron 366,Neuron 367,Neuron 368,Neuron 369,Neuron 370,Neuron 371,Neuron 372,Neuron 373,Neuron 374,Neuron 375,Neuron 376,Neuron 377,Neuron 378,Neuron 379,Neuron 380,Neuron 381,Neuron 382,Neuron 383,Neuron 384,Neuron 385,Neuron 386,Neuron 387,Neuron 388,Neuron 389,Neuron 390,Neuron 391,Neuron 392,Neuron 393,Neuron 394,Neuron 395,Neuron 396,Neuron 397,Neuron 398,Neuron 399,Neuron 400,Neuron 401,Neuron 402,Neuron 403,Neuron 404,Neuron 405,Neuron 406,Neuron 407,Neuron 408,Neuron 409,Neuron 410,Neuron 411,Neuron 412,Neuron 413,Neuron 414,Neuron 415,Neuron 416,Neuron 417,Neuron 418,Neuron 419,Neuron 420,Neuron 421,Neuron 422,Neuron 423,Neuron 424,Neuron 425,Neuron 426,Neuron 427,Neuron 428,Neuron 429,Neuron 430,Neuron 431,Neuron 432,Neuron 433,Neuron 434,Neuron 435,Neuron 436,Neuron 437,Neuron 438,Neuron 439,Neuron 440,Neuron 441,Neuron 442,Neuron 443,Neuron 444,Neuron 445,Neuron 446,Neuron 447,Neuron 448,Neuron 449,Neuron 450,Neuron 451,Neuron 452,Neuron 453,Neuron 454,Neuron 455,Neuron 456,Neuron 457,Neuron 458,Neuron 459,Neuron 460,Neuron 461,Neuron 462,Neuron 463,Neuron 464,Neuron 465,Neuron 466,Neuron 467,Neuron 468,Neuron 469,Neuron 470,Neuron 471,Neuron 472,Neuron 473,Neuron 474,Neuron 475,Neuron 476,Neuron 477,Neuron 478,Neuron 479,Neuron 480,Neuron 481,Neuron 482,Neuron 483,Neuron 484,Neuron 485,Neuron 486,Neuron 487,Neuron 488,Neuron 489,Neuron 490,Neuron 491,Neuron 492,Neuron 493,Neuron 494,Neuron 495,Neuron 496,Neuron 497,Neuron 498,Neuron 499,Neuron 500,Neuron 501,Neuron 502,Neuron 503,Neuron 504,Neuron 505,Neuron 506,Neuron 507,Neuron 508,Neuron 509,Neuron 510,Neuron 511,Neuron 512,Neuron 513,Neuron 514,Neuron 515,Neuron 516,Neuron 517,Neuron 518,Neuron 519,Neuron 520,Neuron 521,Neuron 522,Neuron 523,Neuron 524,Neuron 525,Neuron 526,Neuron 527,Neuron 528,Neuron 529,Neuron 530,Neuron 531,Neuron 532,Neuron 533,Neuron 534,Neuron 535,Neuron 536,Neuron 537,Neuron 538,Neuron 539,Neuron 540,Neuron 541,Neuron 542,Neuron 543,Neuron 544,Neuron 545,Neuron 546,Neuron 547,Neuron 548,Neuron 549,Neuron 550,Neuron 551,Neuron 552,Neuron 553,Neuron 554,Neuron 555,Neuron 556,Neuron 557,Neuron 558,Neuron 559,Neuron 560,Neuron 561,Neuron 562,Neuron 563,Neuron 564,Neuron 565,Neuron 566,Neuron 567,Neuron 568,Neuron 569,Neuron 570,Neuron 571,Neuron 572,Neuron 573,Neuron 574,Neuron 575,Neuron 576,Neuron 577,Neuron 578,Neuron 579,Neuron 580,Neuron 581,Neuron 582,Neuron 583,Neuron 584,Neuron 585,Neuron 586,Neuron 587,Neuron 588,Neuron 589,Neuron 590,Neuron 591,Neuron 592,Neuron 593,Neuron 594,Neuron 595,Neuron 596,Neuron 597,Neuron 598,Neuron 599,Neuron 600,Neuron 601,Neuron 602,Neuron 603,Neuron 604,Neuron 605,Neuron 606,Neuron 607,Neuron 608,Neuron 609,Neuron 610,Neuron 611,Neuron 612,Neuron 613,Neuron 614,Neuron 615,Neuron 616,Neuron 617,Neuron 618,Neuron 619,Neuron 620,Neuron 621,Neuron 622,Neuron 623,Neuron 624,Neuron 625,Neuron 626,Neuron 627,Neuron 628,Neuron 629,Neuron 630,Neuron 631,Neuron 632,Neuron 633,Neuron 634,Neuron 635,Neuron 636,Neuron 637,Neuron 638,Neuron 639,Neuron 640,Neuron 641,Neuron 642,Neuron 643,Neuron 644,Neuron 645,Neuron 646,Neuron 647,Neuron 648,Neuron 649,Neuron 650,Neuron 651,Neuron 652,Neuron 653,Neuron 654,Neuron 655,Neuron 656,Neuron 657,Neuron 658,Neuron 659,Neuron 660,Neuron 661,Neuron 662,Neuron 663,Neuron 664,Neuron 665,Neuron 666,Neuron 667,Neuron 668,Neuron 669,Neuron 670,Neuron 671,Neuron 672,Neuron 673,Neuron 674,Neuron 675,Neuron 676,Neuron 677,Neuron 678,Neuron 679,Neuron 680,Neuron 681,Neuron 682,Neuron 683,Neuron 684,Neuron 685,Neuron 686,Neuron 687,Neuron 688,Neuron 689,Neuron 690,Neuron 691,Neuron 692,Neuron 693,Neuron 694,Neuron 695,Neuron 696,Neuron 697,Neuron 698,Neuron 699,Neuron 700,Neuron 701,Neuron 702,Neuron 703,Neuron 704,Neuron 705,Neuron 706,Neuron 707,Neuron 708,Neuron 709,Neuron 710,Neuron 711,Neuron 712,Neuron 713,Neuron 714,Neuron 715,Neuron 716,Neuron 717,Neuron 718,Neuron 719,Neuron 720,Neuron 721,Neuron 722,Neuron 723,Neuron 724,Neuron 725,Neuron 726,Neuron 727,Neuron 728,Neuron 729,Neuron 730,Neuron 731,Neuron 732,Neuron 733,Neuron 734,Neuron 735,Neuron 736,Neuron 737,Neuron 738,Neuron 739,Neuron 740,Neuron 741,Neuron 742,Neuron 743,Neuron 744,Neuron 745,Neuron 746,Neuron 747,Neuron 748,Neuron 749,Neuron 750,Neuron 751,Neuron 752,Neuron 753,Neuron 754,Neuron 755,Neuron 756,Neuron 757,Neuron 758,Neuron 759,Neuron 760,Neuron 761,Neuron 762,Neuron 763,Neuron 764,Neuron 765,Neuron 766,Neuron 767,Neuron 768
Phoebastria_nigripes,-0.03558823,-0.19652586,-0.1940289,0.03504746,0.010165923,-0.27291748,0.028409533,-0.18594679,0.0033270046,0.14952835,0.0508166,0.07048021,0.12075543,0.036883764,-0.1635731,0.20335883,0.05445681,0.058528554,-0.02772776,-0.019519316,-0.1400431,-0.14472084,0.041499384,-0.2533921,0.045665327,0.04579549,-0.07876103,0.32888296,0.005072588,-0.1960294,-0.09303651,0.24154098,-0.035303228,-0.20429529,0.037506156,-0.05605312,0.017112186,-0.032286327,-0.08649642,0.24263546,0.06413071,0.2138066,0.13353911,0.12535451,0.07758363,0.024038834,-0.005909802,-0.11246816,-0.037809916,0.02090427,-0.18156137,0.012662838,0.24105136,-0.0532045,-0.043322746,0.062452484,0.106028944,-0.07551758,-0.004240652,-0.0768833,-0.023747819,-0.18375665,0.028968168,0.14936213,0.16808197,-0.03495396,0.16773759,-0.13273321,-0.16282251,-0.06856477,-0.31497934,-0.055723127,-0.17474744,0.05854251,-0.22141305,0.04798648,-0.008927291,0.12711687,0.036558315,-0.13404788,-0.3714352,-0.032596067,-0.1876082,-0.0932045,0.0052908207,0.09693874,0.058911636,0.3212849,0.21261445,-0.0655336,-0.15229248,-0.23735096,-0.050202426,0.21586207,0.07190954,-0.04972708,-0.2108345,-0.09247405,0.07755301,-0.20967892,-0.00924689,-0.08026237,0.011515884,0.10823361,0.2548463,0.011558453,-0.15925136,-0.14423434,-0.044794757,0.15597744,-0.044627607,0.082928605,-0.050483044,-0.13347244,0.00344832,-0.18658753,0.02501952,-0.14536437,-0.23032877,0.07266525,-0.008480314,-0.15800309,0.17752618,0.040507622,-0.34721085,0.021142317,-0.11037147,-0.03578662,0.0002668798,0.08099173,-0.012637108,0.13931522,0.06250773,-0.11413073,-0.0481208,-0.15180498,-0.11817028,0.03602966,0.027087813,-0.05177099,-0.046725746,-0.048637424,0.0077054766,0.10844812,0.0819935,-0.08256691,-0.040728662,0.17520128,0.0498897,-0.066952206,-0.0033661276,-0.03195397,0.04098118,-0.026658773,0.003746457,0.039978422,-0.06727122,-0.18833654,-0.16943735,0.16782509,-0.3593234,-0.041329563,0.18593208,-0.22200993,-0.007893373,0.2226967,0.0060174093,0.044474106,-0.094785176,-0.017944906,-0.08912482,0.11245858,-0.081114285,0.22782458,0.23612918,0.10609426,-0.12095313,-0.07035424,0.13308993,-0.035103686,0.0043804017,-0.08659695,0.12384789,-0.20327286,-0.05964132,-0.13252988,-0.14945482,0.13907687,-0.13621116,0.03981402,-0.17950343,-0.18493567,-0.1915637,-0.16190404,-0.012680637,0.0352787,-0.0065906676,0.20733629,0.09105416,-0.08954489,0.05780301,-0.053833317,-0.10843852,0.060126413,-0.17415163,0.032929473,0.0050607054,0.10939868,-0.0995278,0.024637898,-0.00830574,0.092241876,-0.029199768,0.075867146,0.038702544,0.04732156,-0.05308943,0.08508511,0.18536799,0.20106886,-0.1566944,-0.21577467,0.17091158,-0.27456206,-0.011543133,0.038724635,-0.18903635,0.14013562,-0.25935563,0.038280565,0.14918359,0.042147707,0.2092273,-0.053704217,-0.028476672,0.07322351,-0.059542835,-0.04740948,-0.08941862,-0.07910319,-0.023835473,0.15410557,-0.04988899,-0.04017686,-0.16009364,-0.06872387,-0.30474153,-0.11111365,0.0862886,-0.07664657,0.08665888,-0.0006475039,0.18804468,0.16794543,-0.070705585,-0.13781825,-0.1782447,-0.26974592,0.006762277,0.03830137,-0.14044854,-0.09950515,0.1951437,0.072405525,-0.102909334,0.09864562,0.020528788,0.011702443,-0.103920735,-0.041305024,0.014820989,-0.27393797,-0.030862873,0.104683064,0.15815347,-0.0306427,-0.12927283,0.08896225,-0.00940777,-0.10427229,-0.012463233,0.28545907,0.031053936,0.20428082,0.12861238,-0.25423333,0.19356193,-0.07146014,-0.17894281,-0.12388048,-0.17054863,0.14394003,-0.051103298,-0.048299566,0.16095878,0.115155265,-0.12224165,0.0027837188,0.17933843,-0.2744042,0.12894982,-0.06086372,0.103969984,-0.057491116,0.2322165,-0.10035403,-0.11749819,0.43670237,0.12295334,-0.0093321,-0.09096012,0.055123404,-0.03136332,-0.06656693,0.017843673,0.018043352,-0.10617203,0.09858374,-0.08380357,0.10613959,-0.11084679,0.16347685,-0.08679953,0.16809659,-0.18313876,-0.19264315,-0.21663587,0.065506555,-0.16881058,-0.20465532,-0.2433704,-0.32474625,-0.16268374,-0.26623467,0.2263326,0.05437227,-0.20042208,-0.054208957,-0.026646875,0.13028835,0.098891236,-0.2925034,-0.101587065,0.024564078,-0.13613701,-0.15142828,-0.03267842,-0.040375497,-0.25889623,-0.1269332,-0.064852,0.1526042,-0.13754055,-0.1973155,0.014093664,-0.031927604,-0.0488034,0.06462364,-0.175226,-0.18859074,-0.083024174,-0.12992023,0.061698303,0.0026576186,-0.04851328,-0.0480864,-0.036176722,-0.0077452115,-0.1458487,-0.18093161,-0.15539627,-0.12997347,-0.2281031,-0.07753432,-0.32130253,0.03441501,0.09908523,-0.113238566,0.1796948,-0.05427821,-0.1018597,0.075961135,-0.08721643,-0.13111205,-0.20611729,0.24322511,-0.1527141,0.1147695,0.2996309,-0.009924334,0.30623704,0.21136229,-0.14628507,0.028220778,0.23404858,-0.04505584,-0.06902228,-0.022284126,-0.06933523,0.12867035,0.044508286,-0.0024360444,-0.047139686,-0.13292478,0.18369934,-0.09152262,-0.2556498,0.08706887,-0.008764355,0.044559434,-0.26104355,0.03526043,-0.020446265,0.052478485,-0.025391757,-0.20336686,0.2653298,-0.004730844,-0.08223903,-0.14341332,-0.16413336,0.06539696,-0.0702952,-0.07567278,0.007169453,-0.061214276,-0.27687216,-0.05571821,-0.20068075,-0.117608935,0.19771788,0.11747158,-0.016731918,-0.121768676,0.031972606,-0.00866722,0.16920456,-0.0012735863,-0.036582783,0.11068661,-0.05184755,-0.070850424,-0.08322028,-0.06250287,-0.14483853,0.2716611,-0.12443387,-0.023983104,0.02868591,-0.11752987,-0.05258417,0.016982436,0.23043801,0.110633574,-0.04216288,0.14298593,0.12880048,-0.29774895,0.024278928,0.070643015,0.008678038,0.014809308,0.060837515,0.010799895,-0.385089,0.115709744,0.1328374,-0.014867439,0.12310676,-0.1366075,0.025744915,-0.32935107,0.05077452,-0.026566524,0.21618687,0.2300113,0.10253303,0.12251534,-0.12896167,-0.04677568,0.026764812,0.16583201,-0.051715747,0.010051741,-0.23964019,-0.2678366,0.3596826,-0.20649233,0.027963353,-0.16426137,0.107132636,0.23795845,0.20194082,0.074584484,-0.33582237,-0.094505146,0.07868224,-0.10007043,-0.106368445,-0.06556235,-0.106757015,-0.02506162,0.029335026,-0.13981429,0.14367042,0.1552002,-0.20376825,-0.14026022,-0.08543985,0.06031754,0.0076369825,0.021409465,-0.14344046,-0.140143,0.21198997,-0.15131634,-0.07573559,0.053700622,0.17922555,0.05928087,-0.036526598,0.2361152,-0.079132274,-0.34208167,-0.10589466,-0.29466906,0.07678869,0.01048684,0.0353895,-0.14240412,0.19804873,0.3022884,-0.3439713,-0.017063629,0.102428705,-0.1565924,0.29714003,0.012043306,-0.022854058,0.12558682,0.07304058,-0.023118254,-0.18789382,0.065743275,-0.0825667,0.1492271,0.088262744,0.12864363,0.012455876,-0.10167951,-0.017231774,-0.16054735,-0.2743319,0.009049374,-0.014398057,0.103997156,-0.061190806,-0.08595991,0.03472657,0.02011562,0.018909294,0.09402795,-0.10259589,0.0502483,0.0679927,-0.11056287,0.1519112,-0.092607096,0.1617927,-0.1681206,-0.09701317,-0.08934362,0.14832902,0.05148677,-0.21480772,0.012879754,-0.13809739,-0.116241865,-0.105511494,0.05153943,-0.22620013,0.21113409,0.09024592,0.036931407,0.02154539,0.13907076,0.00833327,0.07029876,0.030102247,0.016666977,-0.15259211,-0.11800126,-0.048998136,0.047968727,0.14447549,-0.013985878,0.04400721,-0.14453968,-0.11559901,0.13780569,0.24390979,0.06121392,-0.35723248,0.031258233,0.04743826,-0.19477965,0.115006715,-0.102975555,-0.21784808,-0.18192862,-0.05746741,-0.18226866,-0.19758041,0.31243312,0.11374685,-0.16124892,-0.05890747,-0.21950528,0.105297245,-0.009518513,-0.042384144,0.0984334,-0.02021041,-0.06818189,0.0380422,-0.052575167,-0.11007271,-0.28767565,-0.026863432,0.0068527088,0.013329396,-0.047684755,0.036736686,-0.018722836,-0.1621279,0.056831896,-0.1495609,0.015505848,-0.07373847,-0.012747159,-0.16996343,0.07615075,0.10996732,-0.1414775,0.20663814,0.08925824,-0.10192995,-0.16794838,0.046372954,0.060786247,-0.028919108,0.09809533,-0.22315489,-0.05876348,0.0041462355,-0.19815512,0.09267701,0.11916755,-0.05408115,-0.03820981,-0.25693122,0.08507295,0.26227763,0.039971624,0.039304163,-0.20601541,0.06247572,-0.114730135,0.038393427,0.18792388,-0.09316388,-0.12089518,0.26116046,0.112749234,-0.09569454,-0.031357914,-0.02850151,-0.09157751,-0.082579784,0.08855459,0.11190431,0.16281761,0.14693426,0.19538426,-0.13003351,-0.047087554,-0.1337324,0.010066541,0.12191876,0.060489915,0.08966641,-0.002507343,-0.29291812,0.06278357,0.04651714,0.033382118,-0.0034363226,-0.10799041,-0.02344135,0.04199575,0.27769786,0.12542471,-0.15179764,-0.15506688,0.03974982,0.03713921,0.05134513,-0.03228951,0.14279118,0.057153355,-0.03639021,0.15136936,0.08075462,0.15552066,-0.1583698,0.09621397,-0.03670505,0.12120599,-0.06177912,-0.091972105,-0.08034008,-0.10720112,-0.16800548,0.036031324,-0.31968567,0.08245612,0.001537885,0.07838236,-0.011509617,-0.050270054,0.06301307,0.019938767,-0.20364083,-0.11174511,0.028102605,-0.14364187,-0.09685235,-0.061342586,0.018993057,0.06589634,-0.1827387,0.0524994,0.13033682,-0.3579212,-0.15676413,0.11022769,-0.12582201,0.028082244,0.14622965,-0.0064935675,0.072973296,-0.21469717,-0.32755423,-0.013915783,-0.19927905,-0.034598377,-0.013734084,-0.061886143,-0.06493138,0.0541362,0.14305303,-0.21348351,0.13261913,0.0027642758,0.024180768,-0.062315173,-0.21731628,-0.18725461
Phoebastria_immutabilis,-0.09137,-0.2286432,-0.22356805,0.02759238,0.04542043,-0.1727967,0.022355,-0.035212535,0.033187047,0.05928703,-0.010405939,0.035870526,0.018673973,-0.005586011,-0.22872478,0.19407092,0.01834341,0.13161568,-0.11417793,-0.13107151,-0.1304701,-0.17886004,0.026097646,-0.11667225,-0.0017984807,0.05431688,-0.14168163,0.3934198,-0.012423021,-0.19294582,-0.12833816,0.18918101,-0.04593503,-0.1183562,-0.024524903,-0.009345653,0.08098436,0.00043320408,-0.116921745,0.15943602,0.041245226,0.17157893,0.11256758,0.119216114,0.1017425,0.076959826,-0.01318038,-0.098111995,0.019528072,0.018844089,-0.13309479,-0.008572535,0.12284752,-0.099398755,-0.023525007,-0.004627858,0.091762416,0.0044206358,-0.059084777,-0.09826521,-0.031980183,-0.18726008,0.0026836593,0.18468085,0.14272143,0.043300882,0.17740288,-0.17113902,-0.17501405,0.06693971,-0.08611805,-0.01242341,-0.14326115,-0.059235696,-0.17900784,0.09382769,0.1346441,0.14823511,0.029815627,-0.15266946,-0.18515666,-0.085763745,-0.09346631,-0.04957601,-0.007934744,0.13491344,0.04026864,0.29177105,0.06995001,-0.15426196,-0.0076094666,-0.14824656,-0.098552875,0.18635522,0.038100407,0.07373647,-0.15459174,-0.079876386,0.10842817,-0.08339686,-0.05719415,0.0024257165,0.03604269,0.03565211,0.2130308,0.039409515,-0.08742946,-0.028414391,-0.017332764,0.02998205,0.08466453,0.045328345,-0.13233705,-0.13480522,-0.03221738,-0.17242938,-0.10111153,-0.17118807,-0.08317309,-0.044300865,0.0063504498,-0.13539882,0.11180891,0.0097650485,-0.21118861,-0.011524679,-0.13936755,0.009728419,-0.10996337,-0.0324561,-0.07190673,0.056549504,0.10888672,0.083426,0.01823926,-0.08998122,0.01934786,0.0045985933,0.051048037,-0.043526012,-0.017111087,0.03360756,-0.008100766,0.0034050709,0.12596303,-0.057568457,0.0132213915,0.050837737,-0.035539426,-0.09700849,-0.074079745,-0.100081615,0.047442317,0.032260098,-0.09976972,-0.026082851,-0.06005879,-0.21688297,-0.11291843,0.14323603,-0.33346465,-0.074406296,0.1232253,-0.2697861,-0.14135191,0.23170422,-0.05624568,0.09890275,-0.072749816,-0.018044768,-0.050788507,0.07549603,-0.0981714,0.122665815,0.106734164,0.06802934,-0.11173502,0.0053632534,0.08532071,0.049392693,0.029977018,0.0105983345,0.08946567,-0.1681237,-0.15568562,-0.10028877,-0.04114667,0.10835335,-0.060075365,0.0530129,-0.102833025,-0.15258624,-0.14442071,-0.09179938,-0.022152664,0.043536607,-0.051309697,0.17886914,0.05477805,-0.09652595,0.16174531,-0.043644823,-0.10918804,-0.024822954,-0.12208521,-0.0068658576,-0.05333654,0.05776453,-0.10353823,0.046924792,-0.015012344,-0.041683044,-0.06449071,0.03172932,0.08195351,0.019867862,-0.026652275,0.049730718,0.13315323,0.12868705,-0.17729549,-0.19611293,0.06640297,-0.13950902,-0.07408235,0.0739611,0.005398335,0.16484624,-0.14883354,0.0010983213,0.1443259,-0.041988537,0.0796424,-0.08032135,-0.13120799,-0.026857326,-0.15858422,0.034220714,-0.15911788,-0.15243748,0.036198813,0.2335323,-0.13678613,-0.019373007,-0.10120289,0.02864301,-0.19333164,-0.15325661,-0.016737321,0.086126596,0.075820886,-0.034903582,0.15616979,0.12024113,-0.11292468,-0.03733547,-0.08167437,-0.12247097,-0.02010199,0.07393814,-0.11335272,0.024296649,0.13912682,0.03743295,-0.13445148,-0.023661256,-0.05077003,0.030266521,-0.030124044,-0.05118256,0.022464605,-0.22001337,0.003201311,0.050451122,0.05426838,-0.057825815,-0.0921881,0.04672079,-0.0659032,-0.09882593,0.10101693,0.30104443,0.077945806,0.06328087,0.05962411,-0.17830719,0.16679095,-0.07245811,-0.10619778,-0.14382768,-0.11308595,0.075887114,-0.10927342,-0.024585683,0.2043355,0.0793304,-0.07543447,-0.010009805,0.038767025,-0.2451772,0.10330248,-0.013690108,0.0037127093,-0.057279244,0.16868451,-0.13045235,-0.063781336,0.26489606,0.109648265,0.01474258,-0.01955993,0.04037793,-0.03319816,-0.10079968,0.048248958,0.025815057,-0.09956351,0.13388148,-0.007077931,-0.004766828,0.02563954,-0.0027670078,-0.055149257,0.19792072,-0.12605368,-0.10900709,-0.10936502,-0.08075036,-0.089695446,-0.16335584,-0.17324194,-0.19641648,-0.18540534,-0.23118262,0.14723396,0.031217366,-0.19162278,0.0057750824,0.0787009,0.035052367,0.025745142,-0.19175091,-0.07107766,0.07899128,-0.15419716,-0.020948442,-0.04313816,-0.030747807,-0.23073488,-0.11902044,-0.119585805,0.13940313,-0.16482072,-0.12475683,-0.027620785,-0.09831119,-0.14537717,0.019776572,-0.19119725,-0.16807635,-0.14443341,-0.0028904735,0.02093843,0.025517205,0.06864319,-0.06922038,-0.10796782,0.06806972,-0.09492083,-0.07113349,-0.10305643,0.035530042,-0.10686965,-0.017060367,-0.15593411,0.03954803,-0.026358929,-0.26739126,0.08765703,-0.07838956,-0.12894805,0.11037159,-0.08005205,-0.11338179,-0.17760062,0.1050475,-0.08288062,0.068851285,0.121190414,0.062464915,0.3365351,0.04150485,0.01760894,-0.046804257,0.27191386,-0.0143058,-0.1707794,-0.18800615,0.030471774,-0.00041554973,0.110710725,0.006408179,-0.24385227,-0.0701809,0.11349948,-0.0886252,-0.273241,0.07078577,-0.041122604,0.11213917,-0.21188357,0.024908317,-0.011163479,0.025352564,-0.004671754,-0.1429138,0.25542748,0.01314923,-0.08710644,-0.13440843,-0.15438734,-0.025157256,-0.06169959,0.03458835,0.041172545,0.017388012,-0.18310197,0.0653309,-0.18268093,-0.10859561,0.12756798,0.115342,-0.027283471,-0.13649796,0.067079306,0.039057273,0.10627876,0.07668676,-0.023497675,0.10459952,-0.114959344,-0.10776662,-0.0706551,-0.016775686,-0.081922784,0.1978095,-0.063587755,-0.018591587,0.020639066,-0.07204809,-0.051098745,-0.00030461486,0.14261378,0.018608544,0.04224556,0.14925098,0.08607096,-0.22564754,-0.029271971,0.0362147,0.04622636,0.04889841,-0.04182113,-0.034132585,-0.30454105,-0.07155364,0.04661044,-0.038473178,0.1485391,-0.034704234,0.188944,-0.29580233,0.04282063,-0.012402247,0.14502089,0.22838046,0.08262016,0.0042853756,-0.1381127,-0.069900185,0.035058793,0.1818696,-0.106003955,0.014639798,-0.10986927,-0.122849226,0.20540524,-0.110832386,-0.011139166,-0.08925266,0.108599134,0.09809271,0.09636708,-0.09874346,-0.14723478,-0.0854964,0.013028695,-0.06593956,0.03478967,-0.07890571,-0.065184705,0.021354202,-0.06528842,-0.104910366,0.06673336,0.003444319,-0.3103571,-0.10505233,-0.022503568,0.091271065,0.13359831,0.0139444005,-0.20273821,-0.103644006,-0.012008081,-0.041627277,-0.09443888,-0.002580492,0.109443374,-0.06807052,-0.08306847,0.11549466,-0.2589055,-0.35751113,-0.08955405,-0.12740925,-0.0283687,-0.029529015,-0.03105606,-0.0772228,0.1850953,0.17738445,-0.20693977,-0.090889856,0.16541901,-0.21992658,0.12972827,-0.075075634,-0.04231396,0.21146175,0.122415826,-0.028545227,-0.07919684,-0.07514323,0.090532735,0.17644416,-0.010690502,0.10072401,-0.026393678,-0.022487776,-0.029831981,-0.09611407,-0.19211034,0.013765083,0.07089748,0.04677896,0.030079808,-0.06382336,-0.035846863,-0.04221854,-0.044916887,0.06683003,-0.09008299,-0.008421904,0.04567329,-0.07375877,0.084984824,-0.11903083,0.050459027,-0.19485551,-0.13950852,-0.011413195,0.044178434,0.09131581,-0.11490218,-0.054588165,-0.056678113,-0.108967096,-0.07415814,0.1751365,-0.103021786,0.075856335,0.18254,-0.13689047,0.065764815,0.038838558,-0.060287517,0.041079167,0.07464018,-0.013634342,-0.17865224,-0.047983482,-0.0904568,0.07608907,0.10178794,-0.1101155,0.06592474,-0.10635371,-0.05629343,0.037463807,0.08289395,0.10431026,-0.17019965,0.08219778,0.11101442,-0.06955731,0.14164673,-0.10674667,-0.15637565,-0.058242578,-0.023987018,-0.04003908,-0.0786578,0.18992475,0.070468955,-0.05191501,-0.008876594,-0.17570369,0.1007965,-0.10037068,-0.046899814,0.044516508,0.015439098,-0.11945953,0.03320199,-0.002782111,-0.12273268,-0.23805504,0.020481888,0.0850796,0.06453719,-0.067444585,0.05515484,-0.08140383,-0.12847523,-0.03694127,-0.06831612,0.035296157,-0.034458444,0.02932267,-0.20908028,0.04981594,0.0399168,-0.12891129,0.20762573,0.0030987496,-0.048971936,-0.13844365,-0.00065535837,0.12307339,0.045172147,-0.031950835,-0.13102823,-0.03311343,-0.11250677,-0.13492629,0.07708437,0.011428045,-0.06333733,0.021551812,-0.18380612,0.13026953,0.11137506,0.06903504,-0.069816746,-0.13769431,0.08359619,-0.034519587,0.22229522,0.21578674,-0.15490504,-0.107577994,0.24483183,0.18005356,-0.1963848,-0.0052679693,-0.096736535,-0.033385538,-0.07259846,0.073686264,0.14450811,0.040259976,0.09687409,0.2094293,-0.19283888,0.06713281,-0.021505637,0.08502938,-0.0031122968,0.18387136,0.06907093,-0.042226207,-0.1358029,0.140906,0.03110525,-0.09482293,-0.015613492,-0.12921473,0.037766214,0.11746351,0.19982691,0.038406495,-0.10658007,-0.1603923,0.06305192,0.06417577,-0.0120096505,-0.01424908,-0.011110017,-0.021002077,-0.08642034,0.07285084,0.12895122,0.055673648,-0.13651688,0.03841845,-0.165053,0.048782982,-0.02319072,-0.045237124,-0.12754896,-0.0013074427,-0.15712108,0.05676999,-0.21687217,0.116684645,0.10852708,0.05646581,0.030114781,-0.099594906,0.01924743,-0.027603054,-0.106481746,-0.07198093,-0.068827495,-0.098358504,-0.1448069,0.024418209,0.006390183,0.06970594,-0.09032604,0.066362225,0.16102995,-0.23957029,-0.24901828,-0.004162455,-0.17848703,-0.030644473,0.17107709,-0.04114623,0.01250858,-0.23110053,-0.23453434,-0.0850727,-0.19102387,0.15120356,-0.00551465,0.00671951,-0.053623267,0.040615715,0.2649091,-0.24090484,0.17350514,0.014748012,0.013384048,-0.037076373,-0.21959063,-0.20621063
Phoebetria_fusca,-0.11563237,-0.20790096,-0.16833371,-0.07160982,-0.013161532,-0.21350151,0.038546897,-0.04025348,-0.011567716,0.12401424,0.06204521,0.013366541,0.04502381,-0.011376463,-0.17946517,0.16874789,0.0656095,0.08378872,-0.008861511,-0.011027591,-0.09105199,-0.11082342,0.008770581,-0.17822422,0.0004572774,-0.008830358,-0.047489308,0.27624342,-0.036241006,-0.1779045,-0.05829761,0.16548973,0.045790944,-0.17588316,0.0034348138,0.06611889,0.10104348,-0.042106558,-0.09358371,0.12922636,0.06429295,0.13785297,0.08105337,0.14214963,0.09618324,0.04753337,-0.04767373,-0.10087557,0.019849073,0.094365686,-0.14399293,0.08510142,0.14483923,-0.04483844,-0.07624788,0.010053298,-0.0022029828,0.027474705,-0.12999478,-0.068419285,-0.10877704,-0.1471639,-0.033021215,0.2027242,0.21273167,0.044961374,0.1756632,-0.18511458,-0.17213042,-0.05101169,-0.20107009,-0.058760215,-0.15060872,0.0026548407,-0.24450584,-0.06348399,0.0003285145,0.14384113,0.108576864,-0.12873405,-0.31138194,-0.009410643,-0.07777189,-0.08835556,0.04417476,0.1649159,0.06397946,0.29930145,0.10485563,-0.17658155,-0.11953034,-0.19131492,-0.0665776,0.15579085,-0.029351274,-0.02792104,-0.20700845,-0.04428466,0.067151435,-0.17539564,0.057395913,0.034430996,0.0026141363,0.048282437,0.20891425,0.03279961,-0.15366544,-0.008962961,-0.04597541,0.09272406,0.041336644,0.019870205,-0.0935602,-0.047366,0.069427654,-0.23509325,-0.0035447767,-0.09572781,-0.21469025,-0.015280999,0.013030248,-0.15498222,0.1579971,0.050627667,-0.26449588,0.065594964,-0.09034162,-0.016082443,-0.041918907,0.019180628,0.059455268,0.15582858,0.08553675,-0.11581998,-0.08525918,-0.11755521,-0.04748027,0.06301802,-0.04574405,-0.033995055,-0.0026588144,-0.06891386,0.038176738,0.04597743,0.11492299,-0.0052205427,-0.046907227,0.15271536,0.03123969,-0.123250104,-0.05440096,-0.010149326,0.0044262772,-0.025853438,-0.04799419,0.023934511,-0.0037239955,-0.14785227,-0.097711906,0.14179309,-0.33662212,-0.10196686,0.08476217,-0.18437159,-0.066190824,0.22831163,-0.090557225,0.101835884,-0.07551592,-0.052057363,-0.039635096,0.058848355,-0.026650852,0.10959688,0.13008347,0.07116905,-0.12779877,-0.11559046,0.10571966,0.015184819,0.060757942,-0.05321213,0.0018701705,-0.1523732,-0.068529636,-0.06738148,-0.05534843,0.16656823,-0.102168374,0.07245899,-0.17510773,-0.10494953,-0.15412699,-0.103398025,-0.077475674,0.123763025,-0.099578924,0.19169149,0.22721285,-0.06780923,0.0942479,-0.122832,-0.096795775,0.0149509255,-0.14124094,0.0084516965,0.073970884,0.03375729,-0.015034324,0.015928948,-0.045626327,0.04316957,-0.019963456,0.14548683,-0.026103493,-0.0049439385,-0.0856043,0.022151459,0.1616286,0.21376501,-0.1147154,-0.12836538,0.15499099,-0.27682573,-0.034043588,0.056195226,-0.016992735,0.14417368,-0.22905335,0.08238752,0.12401752,-0.050638866,0.12495214,-0.06546369,-0.13648078,-0.00093319843,-0.1268896,-0.060063448,-0.06202979,-0.12596741,-0.06266485,0.20094691,0.0005450985,-0.011639155,-0.12796442,-0.024703966,-0.20372666,-0.24430063,0.057784215,-0.01703581,0.09779045,-0.06552976,0.1309342,0.07965463,-0.04612905,-0.062177375,-0.26741445,-0.20169486,-0.081024006,0.034957167,-0.09054731,-0.16158237,0.1794194,-0.03724702,-0.13569438,0.088562235,0.05219294,0.014505849,-0.10830981,-0.06588728,-0.009573886,-0.25139153,-0.08836039,0.078732945,0.13739309,-0.061595324,-0.16485551,0.022613848,-0.06833131,-0.1519482,-0.01161767,0.29526958,-0.022408864,0.14808959,0.11430598,-0.25505087,0.19308965,-0.136167,-0.16315337,-0.18350296,-0.055477515,0.07548523,-0.11107351,-0.043779403,0.17854539,0.11995077,-0.1333235,-0.017984347,0.017879127,-0.26703656,0.16305459,-0.034348927,-0.007164829,0.028892789,0.10352712,-0.07058933,-0.013234459,0.37561068,0.04791862,0.024031376,-0.050266884,-0.037996665,-0.011516767,-0.003806691,0.07610343,0.025868652,-0.110890865,0.069306515,-0.026847063,0.0635905,-0.111743115,0.15076222,-0.054864813,0.17505433,-0.20220505,-0.19975579,-0.19983785,0.0821495,-0.05253883,-0.09293967,-0.25545737,-0.17244148,-0.23756166,-0.1289836,0.27622277,0.03377516,-0.14072444,-0.0050683706,-0.0251718,0.07782374,-0.025322452,-0.24077047,-0.024477832,-0.009799239,-0.15180717,-0.08226355,-0.06562008,0.044273015,-0.22986326,-0.07837408,-0.08715952,0.11108459,-0.10955255,-0.0640655,-0.024185082,-0.014093665,-0.028159127,0.037634622,-0.17870034,-0.03719728,-0.12354075,-0.05459185,-0.038993582,0.0015379529,0.084078655,-0.053014234,-0.064684935,-0.0019911567,-0.13648562,-0.10585396,-0.07932378,-0.005533467,-0.23106349,-0.08629471,-0.2343806,0.043159034,0.082816385,-0.22209531,0.10962346,-0.04746885,-0.11013569,0.15725568,-0.08957495,-0.13950957,-0.18909957,0.04999521,-0.055917576,0.12400878,0.08596436,0.029678788,0.25068477,0.13068758,-0.082065,0.031103145,0.19849667,-0.0024146654,-0.050494824,-0.11528724,-0.032266736,0.10706432,0.10483549,-0.030056823,-0.15154234,-0.14529487,0.07941645,-0.031786896,-0.16259368,0.11440791,-0.005785738,0.11237232,-0.16388062,0.10012148,-0.08941268,0.11004435,-0.0029318894,-0.080735214,0.24888095,-0.08755986,-0.122640125,-0.12763177,-0.1271471,0.050796088,-0.051120535,0.005635129,0.09116546,0.020300506,-0.23977119,0.0011230833,-0.14166845,-0.06187826,0.16115667,-0.02551374,0.02040613,-0.15862037,0.04583041,0.009987979,0.11030845,0.0089096315,0.051261738,0.10645088,-0.13817006,-0.10811098,-0.08168482,-0.104497835,-0.16762444,0.13586125,-0.059873596,-0.061655033,-0.024048783,-0.1904012,-0.050466925,-0.013785082,0.105666526,0.09051444,-0.011844217,0.10215222,0.14298938,-0.27057856,-0.08198141,-0.009359493,0.017894147,0.023125723,-0.052609004,0.030976081,-0.31775418,0.113766275,0.15498316,-0.08857284,0.06627647,-0.15092713,0.038222097,-0.25386852,-0.027236683,-0.027100887,0.12483848,0.25185448,0.10046792,0.012819638,-0.116474405,-0.04052258,0.018212881,0.17775871,-0.027062286,0.08000979,-0.1488315,-0.21662442,0.29864174,-0.26563433,-0.0017200122,-0.106455974,0.009381121,0.17555924,0.14879555,-0.07935325,-0.22673555,-0.09868981,0.026227713,-0.04669623,-0.016137028,-0.1031012,-0.111694165,0.03857682,-0.027088068,-0.10094933,0.060243648,0.019456025,-0.1536051,-0.07922794,0.07924185,0.031664487,0.00034157635,0.0024628376,-0.1895872,-0.1534172,0.008621673,-0.09462325,-0.039242223,0.043318346,0.2406594,0.075249285,-0.098043345,0.1431339,-0.12398738,-0.3199169,-0.09985274,-0.0848189,0.027050225,-0.033060394,0.04220452,-0.105757535,0.14204398,0.20844041,-0.21606314,-0.11953208,0.20517574,-0.16541906,0.22632097,-0.05328545,-0.017669216,0.15947056,-0.0022301502,0.012209251,-0.18490748,-0.008051353,0.0034605311,0.17558613,0.085652575,0.09791854,-0.041808143,0.00062531116,0.015577184,-0.11356194,-0.21166064,0.050769486,0.0045276675,0.16870704,-0.011384766,-0.1569243,0.0957029,0.0021146534,-0.042633217,0.13022685,-0.064268574,0.049341667,0.01683375,-0.07363137,0.08322709,-0.10447055,0.07160987,-0.20576529,-0.055293277,-0.09036755,0.13106686,0.051846832,-0.18617932,-0.010724495,-0.0906046,-0.08179474,-0.025396006,0.059456255,-0.068731055,0.1663029,0.015274007,-0.058566365,0.038971383,0.008981068,-0.08196425,0.07704155,0.07183638,-0.022824211,-0.09764483,-0.07953796,0.049826156,0.10768944,0.056720972,-0.04128283,0.107996404,-0.111221895,-0.042904906,0.11325222,0.18839411,0.11578851,-0.19719775,0.1150664,0.04997652,-0.14123121,0.11730324,-0.13452111,-0.28792465,-0.11970862,-0.062339105,-0.123726666,-0.09806633,0.16970019,0.03968141,-0.15116304,-0.04736903,-0.22654326,0.1254463,0.011429826,-0.020853195,0.040382657,0.012100986,-0.15935522,0.02294251,-0.06924941,-0.04930335,-0.21189947,-0.032586243,0.028674755,0.06730021,-0.034268886,0.093242876,-0.08400538,-0.12890606,-0.001377657,-0.09565304,-0.013223915,-0.11220848,0.014094531,-0.2090181,0.026310747,0.069390066,-0.06692247,0.122868426,0.08329935,-0.09825157,-0.103539884,0.07557351,0.047281805,0.053636316,0.012178658,-0.13410747,-0.0069049066,-0.04153421,-0.14996399,0.013982744,0.13947758,0.05538616,0.061388984,-0.124795415,0.05357243,0.21464981,0.14551562,-0.0013774735,-0.09218265,0.050243217,-0.065689325,0.05038782,0.12115015,-0.105865404,-0.1805241,0.16241291,0.10930513,-0.13586907,-0.05831362,-0.016309451,-0.1582992,-0.08123888,0.10167608,0.089078754,0.07664158,0.12158713,0.15911242,-0.090757385,-0.00020053379,-0.07574136,-0.013144172,0.100599974,0.1345982,-0.029184345,0.004175975,-0.21546488,0.048718955,0.059012357,-0.027436294,-0.08935005,-0.060774367,0.0002138282,0.1387146,0.18444635,0.16665524,-0.10983222,-0.11964178,0.028161928,-0.0126119265,0.048314713,-0.13942878,0.12977216,0.060157314,-0.13064185,0.14575279,0.11544946,0.072548375,-0.096166916,0.025740791,-0.03814144,0.059442636,-0.1328548,-0.08304217,-0.13188739,-0.016038371,-0.13267104,-0.022061158,-0.2690782,0.119207755,0.09514785,0.042263463,-0.072723,0.015321015,0.07205128,-0.055623848,-0.049201448,-0.1129787,-0.036690086,-0.107409395,-0.07258333,-0.032872446,0.010047652,0.09766684,-0.13328983,0.105596244,0.09376821,-0.26059133,-0.15227944,0.016250124,-0.09114718,-0.083715856,0.16457452,0.041471682,0.01801022,-0.20968057,-0.19650978,-0.074578874,-0.25256342,-0.0059749787,0.027418042,-0.012074812,-0.08965239,0.06080229,0.16494946,-0.15905668,-0.040963914,-0.027906466,-0.011457198,-0.12210807,-0.14823782,-0.1258046
